tree
version=v4
num_class=1
num_tree_per_iteration=1
label_index=0
max_feature_idx=9
objective=regression
feature_names=Column_0 Column_1 Column_2 Column_3 Column_4 Column_5 Column_6 Column_7 Column_8 Column_9
feature_infos=[-0.10722563160735379:0.11072667545381144] [-0.044641636506989144:0.050680118739818619] [-0.089197483824628651:0.16085491731571683] [-0.11239880254408448:0.13204361674121307] [-0.10889328275989867:0.15391371315651542] [-0.11561306597939897:0.19878798965729408] [-0.10230705051741597:0.18117906039727852] [-0.076394503750003298:0.18523444326019867] [-0.12609712083330468:0.13359728192191356] [-0.13776722569000302:0.13561183068907107]
tree_sizes=1098 1038 1119 1040 1123 1123 1121 1205 1364 1294

Tree=0
num_leaves=12
num_cat=0
split_feature=2 8 2 8 3 8 2 2 6 3 4
split_gain=581135 161553 119608 67160.4 31292.8 29876.4 29811.1 25276.1 24513.4 14064.3 7820.46
threshold=0.0051110726399413017 0.0066169375651375798 0.075707763479133675 0.026388679626145977 0.036797144494343258 -0.043277313320491478 0.034211998634722907 -0.021834229207078684 0.021027815919496564 -0.0085452028575915256 -0.042159569137144304
decision_type=2 2 2 2 2 2 2 2 2 2 2
left_child=1 5 3 6 -5 10 -2 -3 9 -7 -1
right_child=2 7 -4 4 -6 8 -8 -9 -10 -11 -12
leaf_value=148.11796963391492 157.56158270203409 152.61949356437938 165.9882306850929 158.38809469113539 163.10996971783825 150.08644030741993 152.80996979064923 156.98496981829194 148.09944334272021 153.2882306021647 145.46496955762098
leaf_weight=25 31 21 23 32 25 34 23 36 38 23 20
leaf_count=25 31 21 23 32 25 34 23 36 38 23 20
internal_value=154.344 150.889 159.425 158.065 160.459 149.061 155.538 155.377 150.067 151.378 146.939
internal_weight=331 197 134 111 57 140 54 57 95 57 45
internal_count=331 197 134 111 57 140 54 57 95 57 45
is_linear=0
shrinkage=1


Tree=1
num_leaves=11
num_cat=0
split_feature=2 8 2 3 8 8 0 1 5 0
split_gain=470719 131307 97329.1 57290.1 26899.2 24268.1 20894.7 16853.8 13232.7 8673.17
threshold=0.0051110726399413017 -0.0019471710869220741 0.071935421220550896 0.016140038639247688 0.020960338271913397 0.016671447243926055 0.028994560305874471 1.0000000180025095e-35 0.0013478844989923322 -0.04728874716553335
decision_type=2 2 2 2 2 2 2 2 2 2
left_child=1 6 3 5 -3 -2 7 9 -5 -1
right_child=2 4 -4 8 -6 -7 -8 -9 -10 -11
leaf_value=-3.1370580900121823 -0.81816661280970426 -1.7596095796787379 10.065240988364586 7.5343714302236382 2.1429534772509022 3.3245734398181628 -2.6930310764189427 -7.4308688395732165 4.2820077021060321 -5.6320049925854336
leaf_weight=22 31 33 26 22 38 26 29 37 29 38
leaf_count=22 31 33 26 22 38 26 29 37 29 38
internal_value=1.50722e-08 -3.11018 4.57244 3.25009 0.329086 1.0715 -5.04819 -5.75231 5.68499 -4.71719
internal_weight=331 197 134 108 71 57 126 97 51 60
internal_count=331 197 134 108 71 57 126 97 51 60
is_linear=0
shrinkage=0.1


Tree=2
num_leaves=12
num_cat=0
split_feature=2 8 2 9 3 8 2 6 2 3 4
split_gain=381282 106503 79702.1 49226 36537.2 22344.3 20168.1 19580.9 16515.2 11307.9 6309.99
threshold=0.0051110726399413017 0.0066169375651375798 0.075707763479133675 0.042414425105295826 1.0000000180025095e-35 -0.043277313320491478 -0.021834229207078684 0.021027815919496564 0.0255895020436765 -0.0085452028575915256 -0.042159569137144304
decision_type=2 2 2 2 2 2 2 2 2 2 2
left_child=1 5 3 4 -2 10 -3 9 -6 -7 -1
right_child=2 6 -4 -5 8 7 -8 -9 -10 -11 -12
leaf_value=-5.059227890968323 -0.48331199530008678 -1.6180518445514498 9.4729137627974804 7.0145293573538474 1.6927176641381305 -3.3995198642506317 2.2814526776472728 -5.1716188775865657 5.3392622082321735 -0.52857641292654944 -7.4422910556569697
leaf_weight=25 37 21 23 24 23 34 36 38 27 23 20
leaf_count=25 37 21 23 24 23 34 36 38 27 23 20
internal_value=6.75054e-09 -2.79917 4.11519 3.00503 1.89897 -4.28278 0.844793 -3.41329 3.66185 -2.24107 -6.11837
internal_weight=331 197 134 111 87 140 57 95 50 57 45
internal_count=331 197 134 111 87 140 57 95 50 57 45
is_linear=0
shrinkage=0.1


Tree=3
num_leaves=11
num_cat=0
split_feature=2 8 3 8 2 6 0 1 8 9
split_gain=309703 99273.3 60101.9 27952.2 24959.5 23578.3 16190.6 15867.3 13895.9 8631.98
threshold=0.0078056028246433007 -0.0019471710869220741 0.023593811001961333 0.027040445212758304 0.046067931447411697 0.0026196268990618565 0.021729483403835632 1.0000000180025095e-35 0.020960338271913397 -0.015575071702386561
decision_type=2 2 2 2 2 2 2 2 2 2
left_child=1 6 3 -2 -4 8 7 9 -3 -1
right_child=2 5 4 -5 -6 -7 -8 -9 -10 -11
leaf_value=-2.9702930676631443 0.03163353430258261 0.011093612670898438 4.0068089025991931 4.1781216580292275 8.1352588057518016 -1.9601240355659415 -2.2985045178069008 -6.6421683203789499 3.3130580748503022 -5.4475808349522685
leaf_weight=39 37 25 27 29 32 27 36 31 26 22
leaf_count=39 37 25 27 29 32 27 36 31 26 22
internal_value=1.12637e-08 -2.38276 3.92678 1.85358 6.24597 0.429404 -4.09642 -4.79995 1.69445 -3.86374
internal_weight=331 206 125 66 59 78 128 92 51 61
internal_count=331 206 125 66 59 78 128 92 51 61
is_linear=0
shrinkage=0.1


Tree=4
num_leaves=12
num_cat=0
split_feature=2 8 2 9 3 2 8 6 0 9 4
split_gain=251129 74152.8 57837.9 36264.1 26576.3 21674.7 21514.9 18176.5 15722.8 7732.73 5232.25
threshold=0.0051110726399413017 0.020960338271913397 0.075707763479133675 0.042414425105295826 0.036797144494343258 0.036367622782484503 -0.043277313320491478 -0.015788562121372845 0.021729483403835632 -0.028001392446889928 -0.042159569137144304
decision_type=2 2 2 2 2 2 2 2 2 2 2
left_child=1 6 3 4 5 -2 10 -8 9 -9 -1
right_child=2 -3 -4 -5 -6 -7 7 8 -10 -11 -12
leaf_value=-4.1072006864547737 2.0399795098738238 1.6968862633956108 7.9038205271181852 5.8354191306047145 4.1218160115755529 -1.7427481357540406 -0.42319318479107271 -2.8598346203565601 -1.2788719283209908 -5.2343759883195169 -6.2772295129299174
leaf_weight=25 33 38 23 24 26 28 31 24 27 32 20
leaf_count=25 33 38 23 24 26 28 31 24 27 32 20
internal_value=2.61333e-09 -2.27171 3.33976 2.39405 1.44471 0.303646 -3.22018 -2.48934 -3.26103 -4.21672 -5.07166
internal_weight=331 197 134 111 87 61 159 114 83 56 45
internal_count=331 197 134 111 87 61 159 114 83 56 45
is_linear=0
shrinkage=0.1


Tree=5
num_leaves=12
num_cat=0
split_feature=8 2 2 9 3 8 4 0 0 1 3
split_gain=205902 70240.8 43362.1 41245.7 21225.1 15868.3 14183.8 13542.6 10807.7 10569.8 6908.61
threshold=1.0000000180025095e-35 0.069779797072789265 0.0061888847138220973 0.029988104360792456 0.036797144494343258 0.03693998964717745 0.048653319504129676 0.028994560305874471 0.0035667911487385268 1.0000000180025095e-35 -0.034934655587476104
decision_type=2 2 2 2 2 2 2 2 2 2 2
left_child=2 3 7 4 6 -5 8 9 -2 10 -1
right_child=1 -3 -4 5 -6 -7 -8 -9 -10 -11 -12
leaf_value=-4.2397653869220191 -0.94057659912109381 7.6663787427155867 0.58359120826463451 1.9888546163385568 3.0252782241157865 5.5777401566505436 -2.7256089571118358 -1.5355913003285728 2.1366970493679953 -5.2123219142089026 -2.1186086215955373
leaf_weight=28 25 23 37 22 23 28 20 33 21 37 34
leaf_count=28 25 23 37 22 23 28 20 33 21 37 34
internal_value=2.14514e-08 2.54743 -2.44192 1.70041 0.409275 3.99863 -0.502363 -3.28997 0.464266 -3.87477 -3.07655
internal_weight=331 162 169 139 89 50 66 132 46 99 62
internal_count=331 162 169 139 89 50 66 132 46 99 62
is_linear=0
shrinkage=0.1


Tree=6
num_leaves=12
num_cat=0
split_feature=2 7 3 8 4 8 6 8 3 3 2
split_gain=168821 58251.8 45188.7 20508 16702.3 16930.7 15027.9 13715.5 12922.5 9818.23 9304.85
threshold=0.010500133009345299 0.023423028219333286 0.023593811001961333 0.027040445212758304 -0.039407663420742069 -0.043277313320491478 -0.019470199925459789 -0.040492496723147982 -0.014277549732380542 0.023593811001961333 -0.012133920542151488
decision_type=2 2 2 2 2 2 2 2 2 2 2
left_child=1 4 3 -2 5 -1 -4 -6 -9 -3 -10
right_child=2 9 6 -5 7 -7 -8 8 10 -11 -12
leaf_value=-3.0926520806092483 -0.55904152393341067 0.032484003805345101 6.5871051518122359 3.085992222818835 -5.4910538295904798 0.42160253195927067 3.3351566672325137 -4.2821625789006559 -0.38050084400177003 2.7947305077856242 -3.2003272966905074
leaf_weight=26 33 31 30 29 24 29 27 33 25 22 22
leaf_count=26 33 31 30 29 24 29 27 33 25 22 22
internal_value=1.42619e-08 -1.69202 3.01435 1.14589 -2.64905 -1.23968 5.04671 -3.39439 -2.76539 1.17908 -1.70042
internal_weight=331 212 119 62 159 55 57 104 80 53 47
internal_count=331 212 119 62 159 55 57 104 80 53 47
is_linear=0
shrinkage=0.1


Tree=7
num_leaves=13
num_cat=0
split_feature=8 2 9 2 9 3 3 6 4 9 8 0
split_gain=140127 50408.6 30478.8 27442.6 16191.6 16415.7 13039.7 11097.3 11363.2 8710.13 6499.25 3697.17
threshold=1.0000000180025095e-35 0.069779797072789265 0.029988104360792456 0.0061888847138220973 -0.0031487509578831947 0.0063795561227150263 0.027036661977810596 0.021027815919496564 -0.010512653398518531 -0.032143499361724386 0.027040445212758304 0.0035667911487385268
decision_type=2 2 2 2 2 2 2 2 2 2 2 2
left_child=3 2 4 7 5 -2 -4 8 9 -1 -6 -9
right_child=1 -3 6 -5 10 -7 -8 11 -10 -11 -12 -13
leaf_value=-4.121503782272339 -0.31688512802124025 6.4380042034646738 1.5377109961076219 0.39241661606608214 -2.3493235778808592 3.6862211113884338 4.7910425526755196 -4.496128034591675 0.091237458160945362 -1.5349248399337134 0.010926840148333993 -2.8983776160648893
leaf_weight=23 20 23 22 37 20 21 28 30 21 30 28 28
leaf_count=23 20 23 22 37 20 21 28 30 21 30 28 28
internal_value=1.73783e-08 2.10151 1.38397 -2.01447 0.274072 1.73349 3.35958 -2.68913 -1.87738 -2.6574 -0.972511 -3.7248
internal_weight=331 162 139 169 89 41 50 132 74 53 48 58
internal_count=331 162 139 169 89 41 50 132 74 53 48 58
is_linear=0
shrinkage=0.1


Tree=8
num_leaves=15
num_cat=0
split_feature=2 6 3 2 8 8 5 5 6 2 3 1 6 3
split_gain=115354 38789 32527.1 15600.7 23342.7 14466.4 12352.5 11653.8 8471.91 12042.4 7784.22 5961.86 6537.38 4058.59
threshold=0.010500133009345299 -0.019470199925459789 0.023593811001961333 0.030978562413080495 0.027040445212758304 0.016671447243926055 0.0013478844989923322 -0.0077334208929041859 0.021027815919496564 -0.021834229207078684 0.0063795561227150263 1.0000000180025095e-35 0.057844193960365983 -0.034934655587476104
decision_type=2 2 2 2 2 2 2 2 2 2 2 2 2 2
left_child=1 7 3 -2 -5 8 -4 -1 9 13 -9 12 -10 -3
right_child=2 5 6 4 -6 -7 -8 10 11 -11 -12 -13 -14 -15
leaf_value=-1.1433519683100961 3.1229351997375492 -3.8485581478476529 5.7677220353373784 -2.6737731993198395 2.0997892087768939 0.10051980885592374 2.8194225279490155 0.32705813288688662 -1.5296203708648681 0.16165714144706728 3.1170800504088403 -4.9358385944366461 -4.0276647849516438 -1.9537520537009607
leaf_weight=22 21 20 27 20 21 22 30 20 20 20 20 20 22 26
leaf_count=22 21 20 27 20 21 22 30 20 20 20 20 20 22 26
internal_value=-7.72294e-09 -1.39865 2.49171 0.90648 -0.228778 -2.26828 4.21599 0.705307 -2.67542 -1.8869 1.72207 -3.5148 -2.83812 -2.77758
internal_weight=331 212 119 62 41 150 57 62 128 66 40 62 42 46
internal_count=331 212 119 62 41 150 57 62 128 66 40 62 42 46
is_linear=0
shrinkage=0.1


Tree=9
num_leaves=14
num_cat=0
split_feature=8 2 9 5 9 9 4 6 6 3 5 2 8
split_gain=94807.5 38201.6 23948.1 20448.3 14625.2 15119.3 10904.7 10107.4 9443.02 7191.59 10077.8 6756.66 5125.65
threshold=-0.0010538420311457786 0.069779797072789265 0.029988104360792456 0.017944752973837675 -0.0031487509578831947 -0.028001392446889928 -0.032527899129736457 -0.027753884984655409 0.0099829025072357396 -0.028048953635777585 -0.0011573031953239603 -0.019678605059317074 0.027040445212758304
decision_type=2 2 2 2 2 2 2 2 2 2 2 2 2
left_child=3 2 4 6 5 -2 8 -4 11 -8 -11 -1 -6
right_child=1 -3 7 -5 12 -7 9 -9 -10 10 -12 -13 -14
leaf_value=-1.6775618294084613 -0.45834521339053202 5.3690062920252482 4.0827315786055163 0.51694654406923235 -2.1965283740650525 3.2929344675757672 -4.8002483272552494 1.2184544173153966 -2.8390628269740517 -0.8807589983940125 -4.0172921805154713 0.86203306913375854 -0.15681481345423631
leaf_weight=22 21 24 28 33 22 22 20 22 28 20 21 20 28
leaf_count=22 21 24 28 33 22 22 20 22 28 20 21 20 28
internal_value=-6.58397e-09 1.67715 1.05753 -1.70783 0.108655 1.46091 -2.26827 2.82245 -1.41656 -3.24563 -2.48728 -0.468231 -1.05429
internal_weight=331 167 143 164 93 43 131 50 70 61 41 42 50
internal_count=331 167 143 164 93 43 131 50 70 61 41 42 50
is_linear=0
shrinkage=0.1


end of trees

feature_importances:
Column_2=26
Column_8=24
Column_3=18
Column_6=11
Column_9=11
Column_0=7
Column_4=7
Column_5=5
Column_1=4
Column_7=1

parameters:
[boosting: gbdt]
[objective: regression]
[metric: l2]
[tree_learner: serial]
[device_type: cpu]
[data_sample_strategy: bagging]
[data: ]
[valid: ]
[num_iterations: 10]
[learning_rate: 0.1]
[num_leaves: 15]
[num_threads: 16]
[seed: 42]
[deterministic: 0]
[force_col_wise: 0]
[force_row_wise: 0]
[histogram_pool_size: -1]
[max_depth: -1]
[min_data_in_leaf: 20]
[min_sum_hessian_in_leaf: 0.001]
[bagging_fraction: 1]
[pos_bagging_fraction: 1]
[neg_bagging_fraction: 1]
[bagging_freq: 0]
[bagging_seed: 400]
[bagging_by_query: 0]
[feature_fraction: 1]
[feature_fraction_bynode: 1]
[feature_fraction_seed: 30056]
[extra_trees: 0]
[extra_seed: 12879]
[early_stopping_round: 0]
[early_stopping_min_delta: 0]
[first_metric_only: 0]
[max_delta_step: 0]
[lambda_l1: 0]
[lambda_l2: 0]
[linear_lambda: 0]
[min_gain_to_split: 0]
[drop_rate: 0.1]
[max_drop: 50]
[skip_drop: 0.5]
[xgboost_dart_mode: 0]
[uniform_drop: 0]
[drop_seed: 17869]
[top_rate: 0.2]
[other_rate: 0.1]
[min_data_per_group: 100]
[max_cat_threshold: 32]
[cat_l2: 10]
[cat_smooth: 10]
[max_cat_to_onehot: 4]
[top_k: 20]
[monotone_constraints: ]
[monotone_constraints_method: basic]
[monotone_penalty: 0]
[feature_contri: ]
[forcedsplits_filename: ]
[refit_decay_rate: 0.9]
[cegb_tradeoff: 1]
[cegb_penalty_split: 0]
[cegb_penalty_feature_lazy: ]
[cegb_penalty_feature_coupled: ]
[path_smooth: 0]
[interaction_constraints: ]
[verbosity: 1]
[saved_feature_importance_type: 0]
[use_quantized_grad: 0]
[num_grad_quant_bins: 4]
[quant_train_renew_leaf: 0]
[stochastic_rounding: 1]
[linear_tree: 0]
[max_bin: 255]
[max_bin_by_feature: ]
[min_data_in_bin: 3]
[bin_construct_sample_cnt: 200000]
[data_random_seed: 175]
[is_enable_sparse: 1]
[enable_bundle: 1]
[use_missing: 1]
[zero_as_missing: 0]
[feature_pre_filter: 1]
[pre_partition: 0]
[two_round: 0]
[header: 0]
[label_column: ]
[weight_column: ]
[group_column: ]
[ignore_column: ]
[categorical_feature: ]
[forcedbins_filename: ]
[precise_float_parser: 0]
[parser_config_file: ]
[objective_seed: 16083]
[num_class: 1]
[is_unbalance: 0]
[scale_pos_weight: 1]
[sigmoid: 1]
[boost_from_average: 1]
[reg_sqrt: 0]
[alpha: 0.9]
[fair_c: 1]
[poisson_max_delta_step: 0.7]
[tweedie_variance_power: 1.5]
[lambdarank_truncation_level: 30]
[lambdarank_norm: 1]
[label_gain: ]
[lambdarank_position_bias_regularization: 0]
[eval_at: ]
[multi_error_top_k: 1]
[auc_mu_weights: ]
[num_machines: 1]
[local_listen_port: 12400]
[time_out: 120]
[machine_list_filename: ]
[machines: ]
[gpu_platform_id: -1]
[gpu_device_id: -1]
[gpu_use_dp: 0]
[num_gpu: 1]

end of parameters

pandas_categorical:null
