{"learner":{"attributes":{"scikit_learn":"{\"_estimator_type\": \"classifier\"}"},"feature_names":[],"feature_types":[],"gradient_booster":{"model":{"cats":{"enc":[],"feature_segments":[],"sorted_idx":[]},"gbtree_model_param":{"num_parallel_tree":"1","num_trees":"5"},"iteration_indptr":[0,1,2,3,4,5],"tree_info":[0,0,0,0,0],"trees":[{"base_weights":[1.2348487E-7,1.3106456E0,-2.1562965E0,1.477611E0,-8.3153385E-1,8.64097E-3,-2.4396749E0,4.53003E-1,-2.015176E-2,2.5677273E-1,-4.5955393E-1,2.84253E-1,-4.7183356E-1,-6.406217E-2,-7.739906E-1],"categories":[],"categories_nodes":[],"categories_segments":[],"categories_sizes":[],"default_left":[0,0,0,0,0,0,0,0,0,0,0,0,0,0,0],"id":0,"left_children":[1,3,5,7,9,11,13,-1,-1,-1,-1,-1,-1,-1,-1],"loss_changes":[2.8656796E2,2.3785522E1,2.3538239E1,3.0476532E0,7.45611E0,9.557281E0,1.0036377E1,0E0,0E0,0E0,0E0,0E0,0E0,0E0,0E0],"parents":[2147483647,0,0,1,1,2,2,3,3,4,4,5,5,6,6],"right_children":[2,4,6,8,10,12,14,-1,-1,-1,-1,-1,-1,-1,-1],"split_conditions":[5.074E-2,1.682E1,1.037E2,5.296E-1,1.573E1,2.548E1,1.926E1,4.53003E-1,-2.015176E-2,2.5677273E-1,-4.5955393E-1,2.84253E-1,-4.7183356E-1,-6.406217E-2,-7.739906E-1],"split_indices":[7,20,22,10,1,21,21,0,0,0,0,0,0,0,0],"split_type":[0,0,0,0,0,0,0,0,0,0,0,0,0,0,0],"sum_hessian":[9.939907E1,6.2066086E1,3.7332985E1,5.7866123E1,4.1999607E0,4.433292E0,3.2899693E1,5.6699467E1,1.1666558E0,1.1666558E0,3.033305E0,3.033305E0,1.3999869E0,2.0999804E0,3.0799711E1],"tree_param":{"num_deleted":"0","num_feature":"30","num_nodes":"15","size_leaf_vector":"1"}},{"base_weights":[2.5796734E-2,9.8847735E-1,-1.6388348E0,1.2518018E0,-8.1120694E-1,-1.7046931E0,4.129247E-2,3.850907E-1,-3.010105E-2,2.7510425E-1,-4.0420052E-1,-6.757717E-2,-5.283633E-1],"categories":[],"categories_nodes":[],"categories_segments":[],"categories_sizes":[],"default_left":[0,0,0,0,0,0,0,0,0,0,0,0,0],"id":1,"left_children":[1,3,5,7,9,11,-1,-1,-1,-1,-1,-1,-1],"loss_changes":[1.5159354E2,2.9411217E1,4.290596E0,2.3956528E0,8.884109E0,2.4046173E0,0E0,0E0,0E0,0E0,0E0,0E0,0E0],"parents":[2147483647,0,0,1,1,2,2,3,3,4,4,5,5],"right_children":[2,4,6,8,10,12,-1,-1,-1,-1,-1,-1,-1],"split_conditions":[1.424E-1,1.682E1,1.114E-1,4.519E1,1.617E1,1.824E1,4.129247E-2,3.850907E-1,-3.010105E-2,2.7510425E-1,-4.0420052E-1,-6.757717E-2,-5.283633E-1],"split_indices":[27,20,16,13,1,13,0,0,0,0,0,0,0],"split_type":[0,0,0,0,0,0,0,0,0,0,0,0,0],"sum_hessian":[9.258677E1,5.8919155E1,3.3667614E1,5.1664227E1,7.2549257E0,3.2503056E1,1.1645573E0,5.052536E1,1.1388693E0,1.5495329E0,5.705393E0,1.3794549E0,3.1123602E1],"tree_param":{"num_deleted":"0","num_feature":"30","num_nodes":"13","size_leaf_vector":"1"}},{"base_weights":[2.8729683E-2,9.7303414E-1,-1.1818068E0,1.1192554E0,-4.1176328E-1,2.547878E-1,-1.3232856E0,3.4731138E-1,-5.1762085E-2,1.784602E-1,-2.908571E-1,2.8201768E-1,-2.2242822E-1,-1.1703097E-2,-4.3446988E-1],"categories":[],"categories_nodes":[],"categories_segments":[],"categories_sizes":[],"default_left":[0,0,0,0,0,0,0,0,0,0,0,0,0,0,0],"id":2,"left_children":[1,3,5,7,9,11,13,-1,-1,-1,-1,-1,-1,-1,-1],"loss_changes":[9.332739E1,9.74456E0,7.611126E0,2.2728386E0,3.445702E0,3.459852E0,5.197441E0,0E0,0E0,0E0,0E0,0E0,0E0,0E0,0E0],"parents":[2147483647,0,0,1,1,2,2,3,3,4,4,5,5,6,6],"right_children":[2,4,6,8,10,12,14,-1,-1,-1,-1,-1,-1,-1,-1],"split_conditions":[5.074E-2,1.682E1,1.958E1,4.106E0,1.832E1,1.459E-1,7.259E2,3.4731138E-1,-5.1762085E-2,1.784602E-1,-2.908571E-1,2.8201768E-1,-2.2242822E-1,-1.1703097E-2,-4.3446988E-1],"split_indices":[7,20,21,12,1,27,23,0,0,0,0,0,0,0,0],"split_type":[0,0,0,0,0,0,0,0,0,0,0,0,0,0,0],"sum_hessian":[7.963708E1,4.4848362E1,3.478871E1,4.073852E1,4.1098404E0,3.0471041E0,3.1741608E1,3.9661823E1,1.0766965E0,1.4415828E0,2.6682575E0,1.8386873E0,1.2084167E0,2.9306853E0,2.8810923E1],"tree_param":{"num_deleted":"0","num_feature":"30","num_nodes":"15","size_leaf_vector":"1"}},{"base_weights":[2.6460124E-2,7.7973056E-1,-1.1580715E0,1.0121677E0,-4.971912E-1,-1.2320148E0,9.004378E-2,3.379095E-1,1.048511E-1,2.1937157E-1,-2.6616192E-1,-6.981979E-2,-3.8263243E-1],"categories":[],"categories_nodes":[],"categories_segments":[],"categories_sizes":[],"default_left":[0,0,0,0,0,0,0,0,0,0,0,0,0],"id":3,"left_children":[1,3,5,7,9,11,-1,-1,-1,-1,-1,-1,-1],"loss_changes":[6.1015697E1,1.2903557E1,3.2369537E0,2.306015E0,4.052579E0,8.099022E-1,0E0,0E0,0E0,0E0,0E0,0E0,0E0],"parents":[2147483647,0,0,1,1,2,2,3,3,4,4,5,5],"right_children":[2,4,6,8,10,12,-1,-1,-1,-1,-1,-1,-1],"split_conditions":[1.424E-1,1.682E1,1.148E-2,2.157E1,1.617E1,1.824E1,9.004378E-2,3.379095E-1,1.048511E-1,2.1937157E-1,-2.6616192E-1,-6.981979E-2,-3.8263243E-1],"split_indices":[27,20,19,1,1,13,0,0,0,0,0,0,0],"split_type":[0,0,0,0,0,0,0,0,0,0,0,0,0],"sum_hessian":[6.637034E1,4.0779484E1,2.5590857E1,3.4674965E1,6.1045194E0,2.4503458E1,1.0873988E0,2.8980915E1,5.6940503E0,1.2602419E0,4.844278E0,1.2853655E0,2.3218092E1],"tree_param":{"num_deleted":"0","num_feature":"30","num_nodes":"13","size_leaf_vector":"1"}},{"base_weights":[2.6572661E-2,7.926131E-1,-9.3082595E-1,9.37615E-1,-2.519891E-1,-7.231875E-2,-1.1362438E0,3.067034E-1,-2.6072292E-2,-2.2322644E-1,1.681441E-1,2.6392165E-1,-2.8346825E-1,-9.816466E-2,-3.5554677E-1],"categories":[],"categories_nodes":[],"categories_segments":[],"categories_sizes":[],"default_left":[0,0,0,0,0,0,0,0,0,0,0,0,0,0,0],"id":4,"left_children":[1,3,5,7,9,11,13,-1,-1,-1,-1,-1,-1,-1,-1],"loss_changes":[4.164031E1,5.0108223E0,4.3705654E0,2.5100155E0,2.26834E0,5.7683134E0,4.1573715E-1,0E0,0E0,0E0,0E0,0E0,0E0,0E0,0E0],"parents":[2147483647,0,0,1,1,2,2,3,3,4,4,5,5,6,6],"right_children":[2,4,6,8,10,12,14,-1,-1,-1,-1,-1,-1,-1,-1],"split_conditions":[5.252E-2,1.682E1,2.375E1,3.444E1,1.566E1,1.146E2,2.577E-1,3.067034E-1,-2.6072292E-2,-2.2322644E-1,1.681441E-1,2.6392165E-1,-2.8346825E-1,-9.816466E-2,-3.5554677E-1],"split_indices":[7,20,21,13,0,22,26,0,0,0,0,0,0,0,0],"split_type":[0,0,0,0,0,0,0,0,0,0,0,0,0,0,0],"sum_hessian":[5.477064E1,3.0521603E1,2.4249039E1,2.6891233E1,3.6303701E0,4.942944E0,1.9306095E1,2.4839125E1,2.0521076E0,2.3133674E0,1.3170025E0,2.3598871E0,2.5830567E0,1.5390688E0,1.7767027E1],"tree_param":{"num_deleted":"0","num_feature":"30","num_nodes":"15","size_leaf_vector":"1"}}]},"name":"gbtree"},"learner_model_param":{"base_score":"[6.2910795E-1]","boost_from_average":"1","num_class":"0","num_feature":"30","num_target":"1"},"objective":{"name":"binary:logistic","reg_loss_param":{"scale_pos_weight":"1"}}},"version":[3,1,3]}